digraph Tree {
node [shape=box] ;
0 [label="X[2] <= 0.5\ngini = 0.473\nsamples = 891\nvalue = [549, 342]"] ;
1 [label="X[0] <= 2.5\ngini = 0.3828\nsamples = 314\nvalue = [81, 233]"] ;
0 -> 1 [labeldistance=2.5, labelangle=45, headlabel="True"] ;
2 [label="X[6] <= 28.8563\ngini = 0.1003\nsamples = 170\nvalue = [9, 161]"] ;
1 -> 2 ;
3 [label="X[6] <= 28.2313\ngini = 0.18\nsamples = 70\nvalue = [7, 63]"] ;
2 -> 3 ;
4 [label="X[3] <= 56.0\ngini = 0.1588\nsamples = 69\nvalue = [6, 63]"] ;
3 -> 4 ;
5 [label="X[4] <= 0.5\ngini = 0.1381\nsamples = 67\nvalue = [5, 62]"] ;
4 -> 5 ;
6 [label="X[6] <= 13.25\ngini = 0.0849\nsamples = 45\nvalue = [2, 43]"] ;
5 -> 6 ;
7 [label="X[6] <= 12.825\ngini = 0.1472\nsamples = 25\nvalue = [2, 23]"] ;
6 -> 7 ;
8 [label="gini = 0.0\nsamples = 11\nvalue = [0, 11]"] ;
7 -> 8 ;
9 [label="X[3] <= 26.0\ngini = 0.2449\nsamples = 14\nvalue = [2, 12]"] ;
7 -> 9 ;
10 [label="X[5] <= 1.0\ngini = 0.4444\nsamples = 3\nvalue = [1, 2]"] ;
9 -> 10 ;
11 [label="gini = 0.5\nsamples = 2\nvalue = [1, 1]"] ;
10 -> 11 ;
12 [label="gini = 0.0\nsamples = 1\nvalue = [0, 1]"] ;
10 -> 12 ;
13 [label="X[3] <= 37.0\ngini = 0.1653\nsamples = 11\nvalue = [1, 10]"] ;
9 -> 13 ;
14 [label="gini = 0.0\nsamples = 8\nvalue = [0, 8]"] ;
13 -> 14 ;
15 [label="X[3] <= 39.0\ngini = 0.4444\nsamples = 3\nvalue = [1, 2]"] ;
13 -> 15 ;
16 [label="gini = 0.0\nsamples = 1\nvalue = [1, 0]"] ;
15 -> 16 ;
17 [label="gini = 0.0\nsamples = 2\nvalue = [0, 2]"] ;
15 -> 17 ;
18 [label="gini = 0.0\nsamples = 20\nvalue = [0, 20]"] ;
6 -> 18 ;
19 [label="X[3] <= 25.0\ngini = 0.2355\nsamples = 22\nvalue = [3, 19]"] ;
5 -> 19 ;
20 [label="gini = 0.0\nsamples = 7\nvalue = [0, 7]"] ;
19 -> 20 ;
21 [label="X[3] <= 27.5\ngini = 0.32\nsamples = 15\nvalue = [3, 12]"] ;
19 -> 21 ;
22 [label="X[7] <= 0.5\ngini = 0.4444\nsamples = 3\nvalue = [2, 1]"] ;
21 -> 22 ;
23 [label="gini = 0.0\nsamples = 2\nvalue = [2, 0]"] ;
22 -> 23 ;
24 [label="gini = 0.0\nsamples = 1\nvalue = [0, 1]"] ;
22 -> 24 ;
25 [label="X[3] <= 43.0\ngini = 0.1528\nsamples = 12\nvalue = [1, 11]"] ;
21 -> 25 ;
26 [label="gini = 0.0\nsamples = 9\nvalue = [0, 9]"] ;
25 -> 26 ;
27 [label="X[3] <= 44.5\ngini = 0.4444\nsamples = 3\nvalue = [1, 2]"] ;
25 -> 27 ;
28 [label="gini = 0.0\nsamples = 1\nvalue = [1, 0]"] ;
27 -> 28 ;
29 [label="gini = 0.0\nsamples = 2\nvalue = [0, 2]"] ;
27 -> 29 ;
30 [label="X[3] <= 57.5\ngini = 0.5\nsamples = 2\nvalue = [1, 1]"] ;
4 -> 30 ;
31 [label="gini = 0.0\nsamples = 1\nvalue = [1, 0]"] ;
30 -> 31 ;
32 [label="gini = 0.0\nsamples = 1\nvalue = [0, 1]"] ;
30 -> 32 ;
33 [label="gini = 0.0\nsamples = 1\nvalue = [1, 0]"] ;
3 -> 33 ;
34 [label="X[5] <= 1.5\ngini = 0.0392\nsamples = 100\nvalue = [2, 98]"] ;
2 -> 34 ;
35 [label="gini = 0.0\nsamples = 84\nvalue = [0, 84]"] ;
34 -> 35 ;
36 [label="X[3] <= 2.5\ngini = 0.2188\nsamples = 16\nvalue = [2, 14]"] ;
34 -> 36 ;
37 [label="gini = 0.0\nsamples = 1\nvalue = [1, 0]"] ;
36 -> 37 ;
38 [label="X[3] <= 24.5\ngini = 0.1244\nsamples = 15\nvalue = [1, 14]"] ;
36 -> 38 ;
39 [label="gini = 0.0\nsamples = 10\nvalue = [0, 10]"] ;
38 -> 39 ;
40 [label="X[3] <= 28.0\ngini = 0.32\nsamples = 5\nvalue = [1, 4]"] ;
38 -> 40 ;
41 [label="gini = 0.0\nsamples = 1\nvalue = [1, 0]"] ;
40 -> 41 ;
42 [label="gini = 0.0\nsamples = 4\nvalue = [0, 4]"] ;
40 -> 42 ;
43 [label="X[6] <= 23.35\ngini = 0.5\nsamples = 144\nvalue = [72, 72]"] ;
1 -> 43 ;
44 [label="X[3] <= 16.5\ngini = 0.4839\nsamples = 117\nvalue = [48, 69]"] ;
43 -> 44 ;
45 [label="X[4] <= 2.5\ngini = 0.4038\nsamples = 57\nvalue = [16, 41]"] ;
44 -> 45 ;
46 [label="X[6] <= 15.3729\ngini = 0.3795\nsamples = 55\nvalue = [14, 41]"] ;
45 -> 46 ;
47 [label="X[6] <= 13.9354\ngini = 0.4497\nsamples = 41\nvalue = [14, 27]"] ;
46 -> 47 ;
48 [label="X[9] <= 0.5\ngini = 0.382\nsamples = 35\nvalue = [9, 26]"] ;
47 -> 48 ;
49 [label="X[5] <= 1.5\ngini = 0.2524\nsamples = 27\nvalue = [4, 23]"] ;
48 -> 49 ;
50 [label="X[6] <= 8.0833\ngini = 0.2041\nsamples = 26\nvalue = [3, 23]"] ;
49 -> 50 ;
51 [label="X[6] <= 7.6813\ngini = 0.1588\nsamples = 23\nvalue = [2, 21]"] ;
50 -> 51 ;
52 [label="X[6] <= 7.4292\ngini = 0.32\nsamples = 5\nvalue = [1, 4]"] ;
51 -> 52 ;
53 [label="gini = 0.0\nsamples = 4\nvalue = [0, 4]"] ;
52 -> 53 ;
54 [label="gini = 0.0\nsamples = 1\nvalue = [1, 0]"] ;
52 -> 54 ;
55 [label="X[6] <= 7.7688\ngini = 0.1049\nsamples = 18\nvalue = [1, 17]"] ;
51 -> 55 ;
56 [label="X[6] <= 7.7438\ngini = 0.1528\nsamples = 12\nvalue = [1, 11]"] ;
55 -> 56 ;
57 [label="gini = 0.0\nsamples = 3\nvalue = [0, 3]"] ;
56 -> 57 ;
58 [label="X[3] <= 8.0\ngini = 0.1975\nsamples = 9\nvalue = [1, 8]"] ;
56 -> 58 ;
59 [label="gini = 0.2188\nsamples = 8\nvalue = [1, 7]"] ;
58 -> 59 ;
60 [label="gini = 0.0\nsamples = 1\nvalue = [0, 1]"] ;
58 -> 60 ;
61 [label="gini = 0.0\nsamples = 6\nvalue = [0, 6]"] ;
55 -> 61 ;
62 [label="X[3] <= 2.0\ngini = 0.4444\nsamples = 3\nvalue = [1, 2]"] ;
50 -> 62 ;
63 [label="gini = 0.0\nsamples = 1\nvalue = [1, 0]"] ;
62 -> 63 ;
64 [label="gini = 0.0\nsamples = 2\nvalue = [0, 2]"] ;
62 -> 64 ;
65 [label="gini = 0.0\nsamples = 1\nvalue = [1, 0]"] ;
49 -> 65 ;
66 [label="X[6] <= 10.7979\ngini = 0.4688\nsamples = 8\nvalue = [5, 3]"] ;
48 -> 66 ;
67 [label="gini = 0.0\nsamples = 5\nvalue = [5, 0]"] ;
66 -> 67 ;
68 [label="gini = 0.0\nsamples = 3\nvalue = [0, 3]"] ;
66 -> 68 ;
69 [label="X[3] <= 14.75\ngini = 0.2778\nsamples = 6\nvalue = [5, 1]"] ;
47 -> 69 ;
70 [label="gini = 0.0\nsamples = 5\nvalue = [5, 0]"] ;
69 -> 70 ;
71 [label="gini = 0.0\nsamples = 1\nvalue = [0, 1]"] ;
69 -> 71 ;
72 [label="gini = 0.0\nsamples = 14\nvalue = [0, 14]"] ;
46 -> 72 ;
73 [label="gini = 0.0\nsamples = 2\nvalue = [2, 0]"] ;
45 -> 73 ;
74 [label="X[3] <= 36.5\ngini = 0.4978\nsamples = 60\nvalue = [32, 28]"] ;
44 -> 74 ;
75 [label="X[3] <= 32.5\ngini = 0.4998\nsamples = 53\nvalue = [26, 27]"] ;
74 -> 75 ;
76 [label="X[5] <= 1.5\ngini = 0.4992\nsamples = 50\nvalue = [26, 24]"] ;
75 -> 76 ;
77 [label="X[6] <= 7.8875\ngini = 0.4907\nsamples = 44\nvalue = [25, 19]"] ;
76 -> 77 ;
78 [label="X[3] <= 28.25\ngini = 0.4688\nsamples = 16\nvalue = [6, 10]"] ;
77 -> 78 ;
79 [label="X[3] <= 18.5\ngini = 0.4082\nsamples = 14\nvalue = [4, 10]"] ;
78 -> 79 ;
80 [label="X[9] <= 0.5\ngini = 0.4444\nsamples = 3\nvalue = [2, 1]"] ;
79 -> 80 ;
81 [label="gini = 0.0\nsamples = 1\nvalue = [1, 0]"] ;
80 -> 81 ;
82 [label="X[6] <= 7.6354\ngini = 0.5\nsamples = 2\nvalue = [1, 1]"] ;
80 -> 82 ;
83 [label="gini = 0.0\nsamples = 1\nvalue = [0, 1]"] ;
82 -> 83 ;
84 [label="gini = 0.0\nsamples = 1\nvalue = [1, 0]"] ;
82 -> 84 ;
85 [label="X[3] <= 24.0\ngini = 0.2975\nsamples = 11\nvalue = [2, 9]"] ;
79 -> 85 ;
86 [label="X[8] <= 0.5\ngini = 0.1975\nsamples = 9\nvalue = [1, 8]"] ;
85 -> 86 ;
87 [label="gini = 0.0\nsamples = 6\nvalue = [0, 6]"] ;
86 -> 87 ;
88 [label="X[6] <= 7.8146\ngini = 0.4444\nsamples = 3\nvalue = [1, 2]"] ;
86 -> 88 ;
89 [label="X[3] <= 21.5\ngini = 0.5\nsamples = 2\nvalue = [1, 1]"] ;
88 -> 89 ;
90 [label="gini = 0.0\nsamples = 1\nvalue = [1, 0]"] ;
89 -> 90 ;
91 [label="gini = 0.0\nsamples = 1\nvalue = [0, 1]"] ;
89 -> 91 ;
92 [label="gini = 0.0\nsamples = 1\nvalue = [0, 1]"] ;
88 -> 92 ;
93 [label="X[6] <= 7.8146\ngini = 0.5\nsamples = 2\nvalue = [1, 1]"] ;
85 -> 93 ;
94 [label="gini = 0.0\nsamples = 1\nvalue = [1, 0]"] ;
93 -> 94 ;
95 [label="gini = 0.0\nsamples = 1\nvalue = [0, 1]"] ;
93 -> 95 ;
96 [label="gini = 0.0\nsamples = 2\nvalue = [2, 0]"] ;
78 -> 96 ;
97 [label="X[4] <= 0.5\ngini = 0.4362\nsamples = 28\nvalue = [19, 9]"] ;
77 -> 97 ;
98 [label="X[3] <= 25.0\ngini = 0.4922\nsamples = 16\nvalue = [9, 7]"] ;
97 -> 98 ;
99 [label="X[3] <= 19.0\ngini = 0.3457\nsamples = 9\nvalue = [7, 2]"] ;
98 -> 99 ;
100 [label="X[7] <= 0.5\ngini = 0.5\nsamples = 4\nvalue = [2, 2]"] ;
99 -> 100 ;
101 [label="gini = 0.0\nsamples = 2\nvalue = [0, 2]"] ;
100 -> 101 ;
102 [label="gini = 0.0\nsamples = 2\nvalue = [2, 0]"] ;
100 -> 102 ;
103 [label="gini = 0.0\nsamples = 5\nvalue = [5, 0]"] ;
99 -> 103 ;
104 [label="X[6] <= 7.9104\ngini = 0.4082\nsamples = 7\nvalue = [2, 5]"] ;
98 -> 104 ;
105 [label="gini = 0.0\nsamples = 1\nvalue = [1, 0]"] ;
104 -> 105 ;
106 [label="X[6] <= 8.6729\ngini = 0.2778\nsamples = 6\nvalue = [1, 5]"] ;
104 -> 106 ;
107 [label="X[3] <= 28.5\ngini = 0.4444\nsamples = 3\nvalue = [1, 2]"] ;
106 -> 107 ;
108 [label="gini = 0.0\nsamples = 2\nvalue = [0, 2]"] ;
107 -> 108 ;
109 [label="gini = 0.0\nsamples = 1\nvalue = [1, 0]"] ;
107 -> 109 ;
110 [label="gini = 0.0\nsamples = 3\nvalue = [0, 3]"] ;
106 -> 110 ;
111 [label="X[6] <= 19.2625\ngini = 0.2778\nsamples = 12\nvalue = [10, 2]"] ;
97 -> 111 ;
112 [label="X[3] <= 24.5\ngini = 0.1653\nsamples = 11\nvalue = [10, 1]"] ;
111 -> 112 ;
113 [label="X[3] <= 22.5\ngini = 0.32\nsamples = 5\nvalue = [4, 1]"] ;
112 -> 113 ;
114 [label="gini = 0.0\nsamples = 4\nvalue = [4, 0]"] ;
113 -> 114 ;
115 [label="gini = 0.0\nsamples = 1\nvalue = [0, 1]"] ;
113 -> 115 ;
116 [label="gini = 0.0\nsamples = 6\nvalue = [6, 0]"] ;
112 -> 116 ;
117 [label="gini = 0.0\nsamples = 1\nvalue = [0, 1]"] ;
111 -> 117 ;
118 [label="X[5] <= 3.5\ngini = 0.2778\nsamples = 6\nvalue = [1, 5]"] ;
76 -> 118 ;
119 [label="gini = 0.0\nsamples = 5\nvalue = [0, 5]"] ;
118 -> 119 ;
120 [label="gini = 0.0\nsamples = 1\nvalue = [1, 0]"] ;
118 -> 120 ;
121 [label="gini = 0.0\nsamples = 3\nvalue = [0, 3]"] ;
75 -> 121 ;
122 [label="X[3] <= 55.0\ngini = 0.2449\nsamples = 7\nvalue = [6, 1]"] ;
74 -> 122 ;
123 [label="gini = 0.0\nsamples = 6\nvalue = [6, 0]"] ;
122 -> 123 ;
124 [label="gini = 0.0\nsamples = 1\nvalue = [0, 1]"] ;
122 -> 124 ;
125 [label="X[5] <= 0.5\ngini = 0.1975\nsamples = 27\nvalue = [24, 3]"] ;
43 -> 125 ;
126 [label="gini = 0.0\nsamples = 1\nvalue = [0, 1]"] ;
125 -> 126 ;
127 [label="X[6] <= 31.3312\ngini = 0.142\nsamples = 26\nvalue = [24, 2]"] ;
125 -> 127 ;
128 [label="gini = 0.0\nsamples = 15\nvalue = [15, 0]"] ;
127 -> 128 ;
129 [label="X[6] <= 32.8812\ngini = 0.2975\nsamples = 11\nvalue = [9, 2]"] ;
127 -> 129 ;
130 [label="gini = 0.0\nsamples = 2\nvalue = [0, 2]"] ;
129 -> 130 ;
131 [label="gini = 0.0\nsamples = 9\nvalue = [9, 0]"] ;
129 -> 131 ;
132 [label="X[6] <= 26.2687\ngini = 0.3064\nsamples = 577\nvalue = [468, 109]"] ;
0 -> 132 [labeldistance=2.5, labelangle=-45, headlabel="False"] ;
133 [label="X[5] <= 0.5\ngini = 0.2264\nsamples = 415\nvalue = [361, 54]"] ;
132 -> 133 ;
134 [label="X[3] <= 32.5\ngini = 0.1842\nsamples = 380\nvalue = [341, 39]"] ;
133 -> 134 ;
135 [label="X[3] <= 30.75\ngini = 0.2054\nsamples = 284\nvalue = [251, 33]"] ;
134 -> 135 ;
136 [label="X[7] <= 0.5\ngini = 0.1812\nsamples = 268\nvalue = [241, 27]"] ;
135 -> 136 ;
137 [label="X[3] <= 26.5\ngini = 0.1569\nsamples = 233\nvalue = [213, 20]"] ;
136 -> 137 ;
138 [label="X[4] <= 1.5\ngini = 0.1346\nsamples = 193\nvalue = [179, 14]"] ;
137 -> 138 ;
139 [label="X[6] <= 8.1354\ngini = 0.1281\nsamples = 189\nvalue = [176, 13]"] ;
138 -> 139 ;
140 [label="X[6] <= 8.0813\ngini = 0.1549\nsamples = 130\nvalue = [119, 11]"] ;
139 -> 140 ;
141 [label="X[4] <= 0.5\ngini = 0.143\nsamples = 129\nvalue = [119, 10]"] ;
140 -> 141 ;
142 [label="X[3] <= 8.0\ngini = 0.1235\nsamples = 121\nvalue = [113, 8]"] ;
141 -> 142 ;
143 [label="X[6] <= 7.8021\ngini = 0.0666\nsamples = 58\nvalue = [56, 2]"] ;
142 -> 143 ;
144 [label="X[6] <= 7.7625\ngini = 0.1172\nsamples = 32\nvalue = [30, 2]"] ;
143 -> 144 ;
145 [label="X[6] <= 7.7438\ngini = 0.0644\nsamples = 30\nvalue = [29, 1]"] ;
144 -> 145 ;
146 [label="gini = 0.0\nsamples = 20\nvalue = [20, 0]"] ;
145 -> 146 ;
147 [label="gini = 0.18\nsamples = 10\nvalue = [9, 1]"] ;
145 -> 147 ;
148 [label="gini = 0.5\nsamples = 2\nvalue = [1, 1]"] ;
144 -> 148 ;
149 [label="gini = 0.0\nsamples = 26\nvalue = [26, 0]"] ;
143 -> 149 ;
150 [label="X[6] <= 3.375\ngini = 0.1723\nsamples = 63\nvalue = [57, 6]"] ;
142 -> 150 ;
151 [label="X[3] <= 22.0\ngini = 0.5\nsamples = 2\nvalue = [1, 1]"] ;
150 -> 151 ;
152 [label="gini = 0.0\nsamples = 1\nvalue = [1, 0]"] ;
151 -> 152 ;
153 [label="gini = 0.0\nsamples = 1\nvalue = [0, 1]"] ;
151 -> 153 ;
154 [label="X[6] <= 7.9875\ngini = 0.1505\nsamples = 61\nvalue = [56, 5]"] ;
150 -> 154 ;
155 [label="X[6] <= 7.1958\ngini = 0.0799\nsamples = 48\nvalue = [46, 2]"] ;
154 -> 155 ;
156 [label="X[6] <= 7.1333\ngini = 0.2188\nsamples = 8\nvalue = [7, 1]"] ;
155 -> 156 ;
157 [label="gini = 0.0\nsamples = 7\nvalue = [7, 0]"] ;
156 -> 157 ;
158 [label="gini = 0.0\nsamples = 1\nvalue = [0, 1]"] ;
156 -> 158 ;
159 [label="X[3] <= 21.5\ngini = 0.0487\nsamples = 40\nvalue = [39, 1]"] ;
155 -> 159 ;
160 [label="X[3] <= 20.75\ngini = 0.0907\nsamples = 21\nvalue = [20, 1]"] ;
159 -> 160 ;
161 [label="gini = 0.0\nsamples = 13\nvalue = [13, 0]"] ;
160 -> 161 ;
162 [label="X[6] <= 7.7979\ngini = 0.2188\nsamples = 8\nvalue = [7, 1]"] ;
160 -> 162 ;
163 [label="X[6] <= 7.7854\ngini = 0.375\nsamples = 4\nvalue = [3, 1]"] ;
162 -> 163 ;
164 [label="gini = 0.0\nsamples = 3\nvalue = [3, 0]"] ;
163 -> 164 ;
165 [label="gini = 0.0\nsamples = 1\nvalue = [0, 1]"] ;
163 -> 165 ;
166 [label="gini = 0.0\nsamples = 4\nvalue = [4, 0]"] ;
162 -> 166 ;
167 [label="gini = 0.0\nsamples = 19\nvalue = [19, 0]"] ;
159 -> 167 ;
168 [label="X[3] <= 19.5\ngini = 0.355\nsamples = 13\nvalue = [10, 3]"] ;
154 -> 168 ;
169 [label="X[3] <= 17.0\ngini = 0.48\nsamples = 5\nvalue = [2, 3]"] ;
168 -> 169 ;
170 [label="gini = 0.5\nsamples = 2\nvalue = [1, 1]"] ;
169 -> 170 ;
171 [label="X[3] <= 18.5\ngini = 0.4444\nsamples = 3\nvalue = [1, 2]"] ;
169 -> 171 ;
172 [label="gini = 0.0\nsamples = 1\nvalue = [0, 1]"] ;
171 -> 172 ;
173 [label="gini = 0.5\nsamples = 2\nvalue = [1, 1]"] ;
171 -> 173 ;
174 [label="gini = 0.0\nsamples = 8\nvalue = [8, 0]"] ;
168 -> 174 ;
175 [label="X[6] <= 7.8896\ngini = 0.375\nsamples = 8\nvalue = [6, 2]"] ;
141 -> 175 ;
176 [label="X[3] <= 23.5\ngini = 0.2449\nsamples = 7\nvalue = [6, 1]"] ;
175 -> 176 ;
177 [label="gini = 0.0\nsamples = 4\nvalue = [4, 0]"] ;
176 -> 177 ;
178 [label="X[6] <= 7.8146\ngini = 0.4444\nsamples = 3\nvalue = [2, 1]"] ;
176 -> 178 ;
179 [label="gini = 0.5\nsamples = 2\nvalue = [1, 1]"] ;
178 -> 179 ;
180 [label="gini = 0.0\nsamples = 1\nvalue = [1, 0]"] ;
178 -> 180 ;
181 [label="gini = 0.0\nsamples = 1\nvalue = [0, 1]"] ;
175 -> 181 ;
182 [label="gini = 0.0\nsamples = 1\nvalue = [0, 1]"] ;
140 -> 182 ;
183 [label="X[0] <= 2.5\ngini = 0.0655\nsamples = 59\nvalue = [57, 2]"] ;
139 -> 183 ;
184 [label="X[3] <= 8.0\ngini = 0.1588\nsamples = 23\nvalue = [21, 2]"] ;
183 -> 184 ;
185 [label="X[0] <= 1.5\ngini = 0.4444\nsamples = 3\nvalue = [2, 1]"] ;
184 -> 185 ;
186 [label="gini = 0.0\nsamples = 2\nvalue = [2, 0]"] ;
185 -> 186 ;
187 [label="gini = 0.0\nsamples = 1\nvalue = [0, 1]"] ;
185 -> 187 ;
188 [label="X[6] <= 11.0\ngini = 0.095\nsamples = 20\nvalue = [19, 1]"] ;
184 -> 188 ;
189 [label="X[3] <= 21.0\ngini = 0.2778\nsamples = 6\nvalue = [5, 1]"] ;
188 -> 189 ;
190 [label="X[3] <= 17.5\ngini = 0.4444\nsamples = 3\nvalue = [2, 1]"] ;
189 -> 190 ;
191 [label="gini = 0.0\nsamples = 1\nvalue = [1, 0]"] ;
190 -> 191 ;
192 [label="gini = 0.5\nsamples = 2\nvalue = [1, 1]"] ;
190 -> 192 ;
193 [label="gini = 0.0\nsamples = 3\nvalue = [3, 0]"] ;
189 -> 193 ;
194 [label="gini = 0.0\nsamples = 14\nvalue = [14, 0]"] ;
188 -> 194 ;
195 [label="gini = 0.0\nsamples = 36\nvalue = [36, 0]"] ;
183 -> 195 ;
196 [label="X[9] <= 0.5\ngini = 0.375\nsamples = 4\nvalue = [3, 1]"] ;
138 -> 196 ;
197 [label="gini = 0.0\nsamples = 1\nvalue = [0, 1]"] ;
196 -> 197 ;
198 [label="gini = 0.0\nsamples = 3\nvalue = [3, 0]"] ;
196 -> 198 ;
199 [label="X[6] <= 7.0104\ngini = 0.255\nsamples = 40\nvalue = [34, 6]"] ;
137 -> 199 ;
200 [label="gini = 0.0\nsamples = 1\nvalue = [0, 1]"] ;
199 -> 200 ;
201 [label="X[9] <= 0.5\ngini = 0.2235\nsamples = 39\nvalue = [34, 5]"] ;
199 -> 201 ;
202 [label="gini = 0.0\nsamples = 1\nvalue = [0, 1]"] ;
201 -> 202 ;
203 [label="X[3] <= 27.5\ngini = 0.1884\nsamples = 38\nvalue = [34, 4]"] ;
201 -> 203 ;
204 [label="X[0] <= 2.5\ngini = 0.4444\nsamples = 6\nvalue = [4, 2]"] ;
203 -> 204 ;
205 [label="gini = 0.0\nsamples = 3\nvalue = [3, 0]"] ;
204 -> 205 ;
206 [label="X[6] <= 7.8458\ngini = 0.4444\nsamples = 3\nvalue = [1, 2]"] ;
204 -> 206 ;
207 [label="gini = 0.0\nsamples = 1\nvalue = [0, 1]"] ;
206 -> 207 ;
208 [label="X[6] <= 8.2792\ngini = 0.5\nsamples = 2\nvalue = [1, 1]"] ;
206 -> 208 ;
209 [label="gini = 0.0\nsamples = 1\nvalue = [1, 0]"] ;
208 -> 209 ;
210 [label="gini = 0.0\nsamples = 1\nvalue = [0, 1]"] ;
208 -> 210 ;
211 [label="X[6] <= 9.4916\ngini = 0.1172\nsamples = 32\nvalue = [30, 2]"] ;
203 -> 211 ;
212 [label="gini = 0.0\nsamples = 15\nvalue = [15, 0]"] ;
211 -> 212 ;
213 [label="X[6] <= 10.0\ngini = 0.2076\nsamples = 17\nvalue = [15, 2]"] ;
211 -> 213 ;
214 [label="X[3] <= 28.5\ngini = 0.5\nsamples = 4\nvalue = [2, 2]"] ;
213 -> 214 ;
215 [label="gini = 0.0\nsamples = 2\nvalue = [2, 0]"] ;
214 -> 215 ;
216 [label="gini = 0.0\nsamples = 2\nvalue = [0, 2]"] ;
214 -> 216 ;
217 [label="gini = 0.0\nsamples = 13\nvalue = [13, 0]"] ;
213 -> 217 ;
218 [label="X[3] <= 11.5\ngini = 0.32\nsamples = 35\nvalue = [28, 7]"] ;
136 -> 218 ;
219 [label="X[0] <= 2.5\ngini = 0.1884\nsamples = 19\nvalue = [17, 2]"] ;
218 -> 219 ;
220 [label="X[6] <= 14.4563\ngini = 0.5\nsamples = 2\nvalue = [1, 1]"] ;
219 -> 220 ;
221 [label="gini = 0.0\nsamples = 1\nvalue = [0, 1]"] ;
220 -> 221 ;
222 [label="gini = 0.0\nsamples = 1\nvalue = [1, 0]"] ;
220 -> 222 ;
223 [label="X[6] <= 7.5625\ngini = 0.1107\nsamples = 17\nvalue = [16, 1]"] ;
219 -> 223 ;
224 [label="X[6] <= 7.2271\ngini = 0.1653\nsamples = 11\nvalue = [10, 1]"] ;
223 -> 224 ;
225 [label="gini = 0.0\nsamples = 5\nvalue = [5, 0]"] ;
224 -> 225 ;
226 [label="gini = 0.2778\nsamples = 6\nvalue = [5, 1]"] ;
224 -> 226 ;
227 [label="gini = 0.0\nsamples = 6\nvalue = [6, 0]"] ;
223 -> 227 ;
228 [label="X[3] <= 22.5\ngini = 0.4297\nsamples = 16\nvalue = [11, 5]"] ;
218 -> 228 ;
229 [label="X[6] <= 5.6187\ngini = 0.48\nsamples = 5\nvalue = [2, 3]"] ;
228 -> 229 ;
230 [label="gini = 0.0\nsamples = 1\nvalue = [1, 0]"] ;
229 -> 230 ;
231 [label="X[3] <= 21.0\ngini = 0.375\nsamples = 4\nvalue = [1, 3]"] ;
229 -> 231 ;
232 [label="gini = 0.0\nsamples = 2\nvalue = [0, 2]"] ;
231 -> 232 ;
233 [label="X[6] <= 7.2271\ngini = 0.5\nsamples = 2\nvalue = [1, 1]"] ;
231 -> 233 ;
234 [label="gini = 0.0\nsamples = 1\nvalue = [0, 1]"] ;
233 -> 234 ;
235 [label="gini = 0.0\nsamples = 1\nvalue = [1, 0]"] ;
233 -> 235 ;
236 [label="X[6] <= 7.5625\ngini = 0.2975\nsamples = 11\nvalue = [9, 2]"] ;
228 -> 236 ;
237 [label="gini = 0.0\nsamples = 5\nvalue = [5, 0]"] ;
236 -> 237 ;
238 [label="X[4] <= 0.5\ngini = 0.4444\nsamples = 6\nvalue = [4, 2]"] ;
236 -> 238 ;
239 [label="X[0] <= 2.5\ngini = 0.4444\nsamples = 3\nvalue = [1, 2]"] ;
238 -> 239 ;
240 [label="gini = 0.0\nsamples = 1\nvalue = [1, 0]"] ;
239 -> 240 ;
241 [label="gini = 0.0\nsamples = 2\nvalue = [0, 2]"] ;
239 -> 241 ;
242 [label="gini = 0.0\nsamples = 3\nvalue = [3, 0]"] ;
238 -> 242 ;
243 [label="X[6] <= 7.8146\ngini = 0.4688\nsamples = 16\nvalue = [10, 6]"] ;
135 -> 243 ;
244 [label="gini = 0.0\nsamples = 3\nvalue = [3, 0]"] ;
243 -> 244 ;
245 [label="X[6] <= 7.875\ngini = 0.497\nsamples = 13\nvalue = [7, 6]"] ;
243 -> 245 ;
246 [label="gini = 0.0\nsamples = 1\nvalue = [0, 1]"] ;
245 -> 246 ;
247 [label="X[6] <= 20.925\ngini = 0.4861\nsamples = 12\nvalue = [7, 5]"] ;
245 -> 247 ;
248 [label="X[3] <= 31.5\ngini = 0.4628\nsamples = 11\nvalue = [7, 4]"] ;
247 -> 248 ;
249 [label="X[0] <= 2.5\ngini = 0.4444\nsamples = 3\nvalue = [1, 2]"] ;
248 -> 249 ;
250 [label="X[6] <= 11.75\ngini = 0.5\nsamples = 2\nvalue = [1, 1]"] ;
249 -> 250 ;
251 [label="gini = 0.0\nsamples = 1\nvalue = [1, 0]"] ;
250 -> 251 ;
252 [label="gini = 0.0\nsamples = 1\nvalue = [0, 1]"] ;
250 -> 252 ;
253 [label="gini = 0.0\nsamples = 1\nvalue = [0, 1]"] ;
249 -> 253 ;
254 [label="X[6] <= 8.2063\ngini = 0.375\nsamples = 8\nvalue = [6, 2]"] ;
248 -> 254 ;
255 [label="X[6] <= 7.9875\ngini = 0.48\nsamples = 5\nvalue = [3, 2]"] ;
254 -> 255 ;
256 [label="X[6] <= 7.9104\ngini = 0.375\nsamples = 4\nvalue = [3, 1]"] ;
255 -> 256 ;
257 [label="gini = 0.0\nsamples = 1\nvalue = [1, 0]"] ;
256 -> 257 ;
258 [label="gini = 0.4444\nsamples = 3\nvalue = [2, 1]"] ;
256 -> 258 ;
259 [label="gini = 0.0\nsamples = 1\nvalue = [0, 1]"] ;
255 -> 259 ;
260 [label="gini = 0.0\nsamples = 3\nvalue = [3, 0]"] ;
254 -> 260 ;
261 [label="gini = 0.0\nsamples = 1\nvalue = [0, 1]"] ;
247 -> 261 ;
262 [label="X[6] <= 7.9104\ngini = 0.1172\nsamples = 96\nvalue = [90, 6]"] ;
134 -> 262 ;
263 [label="gini = 0.0\nsamples = 36\nvalue = [36, 0]"] ;
262 -> 263 ;
264 [label="X[6] <= 7.9875\ngini = 0.18\nsamples = 60\nvalue = [54, 6]"] ;
262 -> 264 ;
265 [label="X[4] <= 1.0\ngini = 0.5\nsamples = 4\nvalue = [2, 2]"] ;
264 -> 265 ;
266 [label="X[3] <= 41.5\ngini = 0.4444\nsamples = 3\nvalue = [1, 2]"] ;
265 -> 266 ;
267 [label="gini = 0.5\nsamples = 2\nvalue = [1, 1]"] ;
266 -> 267 ;
268 [label="gini = 0.0\nsamples = 1\nvalue = [0, 1]"] ;
266 -> 268 ;
269 [label="gini = 0.0\nsamples = 1\nvalue = [1, 0]"] ;
265 -> 269 ;
270 [label="X[6] <= 13.25\ngini = 0.1327\nsamples = 56\nvalue = [52, 4]"] ;
264 -> 270 ;
271 [label="X[3] <= 59.5\ngini = 0.1928\nsamples = 37\nvalue = [33, 4]"] ;
270 -> 271 ;
272 [label="X[6] <= 12.9375\ngini = 0.1609\nsamples = 34\nvalue = [31, 3]"] ;
271 -> 272 ;
273 [label="X[3] <= 44.5\ngini = 0.0832\nsamples = 23\nvalue = [22, 1]"] ;
272 -> 273 ;
274 [label="gini = 0.0\nsamples = 16\nvalue = [16, 0]"] ;
273 -> 274 ;
275 [label="X[3] <= 46.0\ngini = 0.2449\nsamples = 7\nvalue = [6, 1]"] ;
273 -> 275 ;
276 [label="gini = 0.0\nsamples = 1\nvalue = [0, 1]"] ;
275 -> 276 ;
277 [label="gini = 0.0\nsamples = 6\nvalue = [6, 0]"] ;
275 -> 277 ;
278 [label="X[3] <= 45.0\ngini = 0.2975\nsamples = 11\nvalue = [9, 2]"] ;
272 -> 278 ;
279 [label="X[3] <= 40.5\ngini = 0.375\nsamples = 8\nvalue = [6, 2]"] ;
278 -> 279 ;
280 [label="X[3] <= 35.0\ngini = 0.2778\nsamples = 6\nvalue = [5, 1]"] ;
279 -> 280 ;
281 [label="gini = 0.4444\nsamples = 3\nvalue = [2, 1]"] ;
280 -> 281 ;
282 [label="gini = 0.0\nsamples = 3\nvalue = [3, 0]"] ;
280 -> 282 ;
283 [label="gini = 0.5\nsamples = 2\nvalue = [1, 1]"] ;
279 -> 283 ;
284 [label="gini = 0.0\nsamples = 3\nvalue = [3, 0]"] ;
278 -> 284 ;
285 [label="X[3] <= 64.0\ngini = 0.4444\nsamples = 3\nvalue = [2, 1]"] ;
271 -> 285 ;
286 [label="gini = 0.0\nsamples = 1\nvalue = [0, 1]"] ;
285 -> 286 ;
287 [label="gini = 0.0\nsamples = 2\nvalue = [2, 0]"] ;
285 -> 287 ;
288 [label="gini = 0.0\nsamples = 19\nvalue = [19, 0]"] ;
270 -> 288 ;
289 [label="X[3] <= 12.0\ngini = 0.4898\nsamples = 35\nvalue = [20, 15]"] ;
133 -> 289 ;
290 [label="X[4] <= 2.0\ngini = 0.2907\nsamples = 17\nvalue = [3, 14]"] ;
289 -> 290 ;
291 [label="X[6] <= 22.0125\ngini = 0.1244\nsamples = 15\nvalue = [1, 14]"] ;
290 -> 291 ;
292 [label="gini = 0.0\nsamples = 12\nvalue = [0, 12]"] ;
291 -> 292 ;
293 [label="X[0] <= 2.5\ngini = 0.4444\nsamples = 3\nvalue = [1, 2]"] ;
291 -> 293 ;
294 [label="gini = 0.0\nsamples = 2\nvalue = [0, 2]"] ;
293 -> 294 ;
295 [label="gini = 0.0\nsamples = 1\nvalue = [1, 0]"] ;
293 -> 295 ;
296 [label="gini = 0.0\nsamples = 2\nvalue = [2, 0]"] ;
290 -> 296 ;
297 [label="X[7] <= 0.5\ngini = 0.1049\nsamples = 18\nvalue = [17, 1]"] ;
289 -> 297 ;
298 [label="gini = 0.0\nsamples = 15\nvalue = [15, 0]"] ;
297 -> 298 ;
299 [label="X[3] <= 18.5\ngini = 0.4444\nsamples = 3\nvalue = [2, 1]"] ;
297 -> 299 ;
300 [label="gini = 0.0\nsamples = 2\nvalue = [2, 0]"] ;
299 -> 300 ;
301 [label="gini = 0.0\nsamples = 1\nvalue = [0, 1]"] ;
299 -> 301 ;
302 [label="X[4] <= 2.5\ngini = 0.4485\nsamples = 162\nvalue = [107, 55]"] ;
132 -> 302 ;
303 [label="X[3] <= 53.0\ngini = 0.4751\nsamples = 139\nvalue = [85, 54]"] ;
302 -> 303 ;
304 [label="X[6] <= 26.775\ngini = 0.4918\nsamples = 117\nvalue = [66, 51]"] ;
303 -> 304 ;
305 [label="X[3] <= 14.0\ngini = 0.2604\nsamples = 13\nvalue = [2, 11]"] ;
304 -> 305 ;
306 [label="gini = 0.5\nsamples = 2\nvalue = [1, 1]"] ;
305 -> 306 ;
307 [label="X[3] <= 43.5\ngini = 0.1653\nsamples = 11\nvalue = [1, 10]"] ;
305 -> 307 ;
308 [label="gini = 0.0\nsamples = 7\nvalue = [0, 7]"] ;
307 -> 308 ;
309 [label="X[3] <= 46.5\ngini = 0.375\nsamples = 4\nvalue = [1, 3]"] ;
307 -> 309 ;
310 [label="gini = 0.5\nsamples = 2\nvalue = [1, 1]"] ;
309 -> 310 ;
311 [label="gini = 0.0\nsamples = 2\nvalue = [0, 2]"] ;
309 -> 311 ;
312 [label="X[6] <= 28.75\ngini = 0.4734\nsamples = 104\nvalue = [64, 40]"] ;
304 -> 312 ;
313 [label="gini = 0.0\nsamples = 9\nvalue = [9, 0]"] ;
312 -> 313 ;
314 [label="X[6] <= 30.5979\ngini = 0.4875\nsamples = 95\nvalue = [55, 40]"] ;
312 -> 314 ;
315 [label="X[3] <= 28.0\ngini = 0.3967\nsamples = 11\nvalue = [3, 8]"] ;
314 -> 315 ;
316 [label="gini = 0.0\nsamples = 6\nvalue = [0, 6]"] ;
315 -> 316 ;
317 [label="X[6] <= 30.2854\ngini = 0.48\nsamples = 5\nvalue = [3, 2]"] ;
315 -> 317 ;
318 [label="gini = 0.0\nsamples = 3\nvalue = [3, 0]"] ;
317 -> 318 ;
319 [label="gini = 0.0\nsamples = 2\nvalue = [0, 2]"] ;
317 -> 319 ;
320 [label="X[6] <= 52.2771\ngini = 0.4717\nsamples = 84\nvalue = [52, 32]"] ;
314 -> 320 ;
321 [label="X[4] <= 1.5\ngini = 0.3662\nsamples = 29\nvalue = [22, 7]"] ;
320 -> 321 ;
322 [label="X[3] <= 47.5\ngini = 0.3367\nsamples = 28\nvalue = [22, 6]"] ;
321 -> 322 ;
323 [label="X[6] <= 37.7521\ngini = 0.3018\nsamples = 27\nvalue = [22, 5]"] ;
322 -> 323 ;
324 [label="X[6] <= 35.25\ngini = 0.4444\nsamples = 15\nvalue = [10, 5]"] ;
323 -> 324 ;
325 [label="X[9] <= 0.5\ngini = 0.2188\nsamples = 8\nvalue = [7, 1]"] ;
324 -> 325 ;
326 [label="X[6] <= 30.8479\ngini = 0.5\nsamples = 2\nvalue = [1, 1]"] ;
325 -> 326 ;
327 [label="gini = 0.0\nsamples = 1\nvalue = [1, 0]"] ;
326 -> 327 ;
328 [label="gini = 0.0\nsamples = 1\nvalue = [0, 1]"] ;
326 -> 328 ;
329 [label="gini = 0.0\nsamples = 6\nvalue = [6, 0]"] ;
325 -> 329 ;
330 [label="X[3] <= 13.5\ngini = 0.4898\nsamples = 7\nvalue = [3, 4]"] ;
324 -> 330 ;
331 [label="gini = 0.0\nsamples = 3\nvalue = [0, 3]"] ;
330 -> 331 ;
332 [label="X[6] <= 36.125\ngini = 0.375\nsamples = 4\nvalue = [3, 1]"] ;
330 -> 332 ;
333 [label="X[3] <= 36.5\ngini = 0.5\nsamples = 2\nvalue = [1, 1]"] ;
332 -> 333 ;
334 [label="gini = 0.0\nsamples = 1\nvalue = [0, 1]"] ;
333 -> 334 ;
335 [label="gini = 0.0\nsamples = 1\nvalue = [1, 0]"] ;
333 -> 335 ;
336 [label="gini = 0.0\nsamples = 2\nvalue = [2, 0]"] ;
332 -> 336 ;
337 [label="gini = 0.0\nsamples = 12\nvalue = [12, 0]"] ;
323 -> 337 ;
338 [label="gini = 0.0\nsamples = 1\nvalue = [0, 1]"] ;
322 -> 338 ;
339 [label="gini = 0.0\nsamples = 1\nvalue = [0, 1]"] ;
321 -> 339 ;
340 [label="X[6] <= 59.0875\ngini = 0.4959\nsamples = 55\nvalue = [30, 25]"] ;
320 -> 340 ;
341 [label="X[3] <= 49.5\ngini = 0.4297\nsamples = 16\nvalue = [5, 11]"] ;
340 -> 341 ;
342 [label="X[3] <= 22.0\ngini = 0.3911\nsamples = 15\nvalue = [4, 11]"] ;
341 -> 342 ;
343 [label="X[0] <= 2.0\ngini = 0.5\nsamples = 4\nvalue = [2, 2]"] ;
342 -> 343 ;
344 [label="gini = 0.0\nsamples = 1\nvalue = [1, 0]"] ;
343 -> 344 ;
345 [label="gini = 0.4444\nsamples = 3\nvalue = [1, 2]"] ;
343 -> 345 ;
346 [label="X[3] <= 27.5\ngini = 0.2975\nsamples = 11\nvalue = [2, 9]"] ;
342 -> 346 ;
347 [label="gini = 0.0\nsamples = 3\nvalue = [0, 3]"] ;
346 -> 347 ;
348 [label="X[3] <= 29.5\ngini = 0.375\nsamples = 8\nvalue = [2, 6]"] ;
346 -> 348 ;
349 [label="gini = 0.0\nsamples = 1\nvalue = [1, 0]"] ;
348 -> 349 ;
350 [label="X[6] <= 54.7979\ngini = 0.2449\nsamples = 7\nvalue = [1, 6]"] ;
348 -> 350 ;
351 [label="X[6] <= 52.8271\ngini = 0.4444\nsamples = 3\nvalue = [1, 2]"] ;
350 -> 351 ;
352 [label="gini = 0.0\nsamples = 2\nvalue = [0, 2]"] ;
351 -> 352 ;
353 [label="gini = 0.0\nsamples = 1\nvalue = [1, 0]"] ;
351 -> 353 ;
354 [label="gini = 0.0\nsamples = 4\nvalue = [0, 4]"] ;
350 -> 354 ;
355 [label="gini = 0.0\nsamples = 1\nvalue = [1, 0]"] ;
341 -> 355 ;
356 [label="X[5] <= 1.5\ngini = 0.4602\nsamples = 39\nvalue = [25, 14]"] ;
340 -> 356 ;
357 [label="X[6] <= 379.925\ngini = 0.3967\nsamples = 33\nvalue = [24, 9]"] ;
356 -> 357 ;
358 [label="X[3] <= 22.5\ngini = 0.3496\nsamples = 31\nvalue = [24, 7]"] ;
357 -> 358 ;
359 [label="gini = 0.0\nsamples = 8\nvalue = [8, 0]"] ;
358 -> 359 ;
360 [label="X[3] <= 23.5\ngini = 0.4234\nsamples = 23\nvalue = [16, 7]"] ;
358 -> 360 ;
361 [label="gini = 0.0\nsamples = 1\nvalue = [0, 1]"] ;
360 -> 361 ;
362 [label="X[6] <= 75.1146\ngini = 0.3967\nsamples = 22\nvalue = [16, 6]"] ;
360 -> 362 ;
363 [label="gini = 0.0\nsamples = 5\nvalue = [5, 0]"] ;
362 -> 363 ;
364 [label="X[6] <= 77.7896\ngini = 0.4567\nsamples = 17\nvalue = [11, 6]"] ;
362 -> 364 ;
365 [label="gini = 0.0\nsamples = 2\nvalue = [0, 2]"] ;
364 -> 365 ;
366 [label="X[6] <= 86.2896\ngini = 0.3911\nsamples = 15\nvalue = [11, 4]"] ;
364 -> 366 ;
367 [label="gini = 0.0\nsamples = 6\nvalue = [6, 0]"] ;
366 -> 367 ;
368 [label="X[5] <= 0.5\ngini = 0.4938\nsamples = 9\nvalue = [5, 4]"] ;
366 -> 368 ;
369 [label="X[8] <= 0.5\ngini = 0.4444\nsamples = 6\nvalue = [2, 4]"] ;
368 -> 369 ;
370 [label="X[6] <= 98.7521\ngini = 0.32\nsamples = 5\nvalue = [1, 4]"] ;
369 -> 370 ;
371 [label="gini = 0.0\nsamples = 3\nvalue = [0, 3]"] ;
370 -> 371 ;
372 [label="X[7] <= 0.5\ngini = 0.5\nsamples = 2\nvalue = [1, 1]"] ;
370 -> 372 ;
373 [label="gini = 0.0\nsamples = 1\nvalue = [0, 1]"] ;
372 -> 373 ;
374 [label="gini = 0.0\nsamples = 1\nvalue = [1, 0]"] ;
372 -> 374 ;
375 [label="gini = 0.0\nsamples = 1\nvalue = [1, 0]"] ;
369 -> 375 ;
376 [label="gini = 0.0\nsamples = 3\nvalue = [3, 0]"] ;
368 -> 376 ;
377 [label="gini = 0.0\nsamples = 2\nvalue = [0, 2]"] ;
357 -> 377 ;
378 [label="X[6] <= 181.525\ngini = 0.2778\nsamples = 6\nvalue = [1, 5]"] ;
356 -> 378 ;
379 [label="gini = 0.0\nsamples = 5\nvalue = [0, 5]"] ;
378 -> 379 ;
380 [label="gini = 0.0\nsamples = 1\nvalue = [1, 0]"] ;
378 -> 380 ;
381 [label="X[3] <= 75.5\ngini = 0.2355\nsamples = 22\nvalue = [19, 3]"] ;
303 -> 381 ;
382 [label="X[7] <= 0.5\ngini = 0.1723\nsamples = 21\nvalue = [19, 2]"] ;
381 -> 382 ;
383 [label="gini = 0.0\nsamples = 13\nvalue = [13, 0]"] ;
382 -> 383 ;
384 [label="X[4] <= 0.5\ngini = 0.375\nsamples = 8\nvalue = [6, 2]"] ;
382 -> 384 ;
385 [label="X[3] <= 57.0\ngini = 0.2449\nsamples = 7\nvalue = [6, 1]"] ;
384 -> 385 ;
386 [label="X[6] <= 33.0979\ngini = 0.5\nsamples = 2\nvalue = [1, 1]"] ;
385 -> 386 ;
387 [label="gini = 0.0\nsamples = 1\nvalue = [1, 0]"] ;
386 -> 387 ;
388 [label="gini = 0.0\nsamples = 1\nvalue = [0, 1]"] ;
386 -> 388 ;
389 [label="gini = 0.0\nsamples = 5\nvalue = [5, 0]"] ;
385 -> 389 ;
390 [label="gini = 0.0\nsamples = 1\nvalue = [0, 1]"] ;
384 -> 390 ;
391 [label="gini = 0.0\nsamples = 1\nvalue = [0, 1]"] ;
381 -> 391 ;
392 [label="X[3] <= 3.5\ngini = 0.0832\nsamples = 23\nvalue = [22, 1]"] ;
302 -> 392 ;
393 [label="X[3] <= 2.5\ngini = 0.1975\nsamples = 9\nvalue = [8, 1]"] ;
392 -> 393 ;
394 [label="gini = 0.0\nsamples = 8\nvalue = [8, 0]"] ;
393 -> 394 ;
395 [label="gini = 0.0\nsamples = 1\nvalue = [0, 1]"] ;
393 -> 395 ;
396 [label="gini = 0.0\nsamples = 14\nvalue = [14, 0]"] ;
392 -> 396 ;
}